<?xml version="1.0"?>
<opencv_storage>
<stage5>
  <maxWeakCount>9</maxWeakCount>
  <stageThreshold>-1.6477298736572266e+00</stageThreshold>
  <weakClassifiers>
    <_>
      <internalNodes>
        0 -1 78765 -2.6719808578491211e-01</internalNodes>
      <leafValues>
        -9.0476191043853760e-01 -4.5180723071098328e-02</leafValues></_>
    <_>
      <internalNodes>
        0 -1 59990 7.4591243173927069e-04</internalNodes>
      <leafValues>
        -3.8482317328453064e-01 5.0217652320861816e-01</leafValues></_>
    <_>
      <internalNodes>
        0 -1 121296 -4.1108060395345092e-04</internalNodes>
      <leafValues>
        5.4397326707839966e-01 -2.7624818682670593e-01</leafValues></_>
    <_>
      <internalNodes>
        0 -1 82357 -1.2019461952149868e-02</internalNodes>
      <leafValues>
        7.0183795690536499e-01 -1.7997562885284424e-01</leafValues></_>
    <_>
      <internalNodes>
        0 -1 60270 -6.9674878614023328e-04</internalNodes>
      <leafValues>
        5.2234745025634766e-01 -2.3488108813762665e-01</leafValues></_>
    <_>
      <internalNodes>
        0 -1 99892 2.2428636252880096e-01</internalNodes>
      <leafValues>
        1.4128701388835907e-01 -9.5326834917068481e-01</leafValues></_>
    <_>
      <internalNodes>
        0 -1 139130 -3.3751795999705791e-03</internalNodes>
      <leafValues>
        4.7164812684059143e-01 -2.8395640850067139e-01</leafValues></_>
    <_>
      <internalNodes>
        0 -1 148259 1.5108265215530992e-03</internalNodes>
      <leafValues>
        -2.0383483171463013e-01 6.2273222208023071e-01</leafValues></_>
    <_>
      <internalNodes>
        0 -1 138337 -3.3128019422292709e-03</internalNodes>
      <leafValues>
        5.9224915504455566e-01 -2.0753534138202667e-01</leafValues></_></weakClassifiers></stage5>
</opencv_storage>
