<?xml version="1.0"?>
<opencv_storage>
<stage15>
  <maxWeakCount>18</maxWeakCount>
  <stageThreshold>-1.1202907562255859e+00</stageThreshold>
  <weakClassifiers>
    <_>
      <internalNodes>
        0 -1 69583 -2.5325347669422626e-03</internalNodes>
      <leafValues>
        1.7647059261798859e-01 -4.6482411026954651e-01</leafValues></_>
    <_>
      <internalNodes>
        0 -1 159686 -1.2140753678977489e-03</internalNodes>
      <leafValues>
        4.8371830582618713e-01 -1.6194173693656921e-01</leafValues></_>
    <_>
      <internalNodes>
        0 -1 67259 4.0951240807771683e-03</internalNodes>
      <leafValues>
        -1.7433926463127136e-01 4.5973232388496399e-01</leafValues></_>
    <_>
      <internalNodes>
        0 -1 146186 5.9809628874063492e-03</internalNodes>
      <leafValues>
        -1.0052457451820374e-01 5.9332215785980225e-01</leafValues></_>
    <_>
      <internalNodes>
        0 -1 68409 -6.2571167945861816e-02</internalNodes>
      <leafValues>
        -7.9836505651473999e-01 9.2913068830966949e-02</leafValues></_>
    <_>
      <internalNodes>
        0 -1 142878 -5.3688236512243748e-03</internalNodes>
      <leafValues>
        6.0426819324493408e-01 -1.0256249457597733e-01</leafValues></_>
    <_>
      <internalNodes>
        0 -1 5938 4.6191103756427765e-03</internalNodes>
      <leafValues>
        1.4260084927082062e-01 -4.4103035330772400e-01</leafValues></_>
    <_>
      <internalNodes>
        0 -1 10271 -3.3886484801769257e-02</internalNodes>
      <leafValues>
        3.8844728469848633e-01 -1.6148883104324341e-01</leafValues></_>
    <_>
      <internalNodes>
        0 -1 120362 2.1999614546075463e-04</internalNodes>
      <leafValues>
        9.8024919629096985e-02 -6.9035297632217407e-01</leafValues></_>
    <_>
      <internalNodes>
        0 -1 37027 7.6721245422959328e-03</internalNodes>
      <leafValues>
        -2.5916627049446106e-01 3.3372205495834351e-01</leafValues></_>
    <_>
      <internalNodes>
        0 -1 106961 -2.9196923132985830e-03</internalNodes>
      <leafValues>
        5.3103834390640259e-01 -1.4197331666946411e-01</leafValues></_>
    <_>
      <internalNodes>
        0 -1 140789 -6.5800785087049007e-03</internalNodes>
      <leafValues>
        4.5128607749938965e-01 -1.4936673641204834e-01</leafValues></_>
    <_>
      <internalNodes>
        0 -1 59759 -3.6005866713821888e-03</internalNodes>
      <leafValues>
        6.0813379287719727e-01 -1.1753000319004059e-01</leafValues></_>
    <_>
      <internalNodes>
        0 -1 135516 2.6745703071355820e-03</internalNodes>
      <leafValues>
        -2.0038114488124847e-01 3.3049765229225159e-01</leafValues></_>
    <_>
      <internalNodes>
        0 -1 139189 -3.0284416861832142e-03</internalNodes>
      <leafValues>
        3.4138402342796326e-01 -2.0485575497150421e-01</leafValues></_>
    <_>
      <internalNodes>
        0 -1 106728 8.9996226597577333e-04</internalNodes>
      <leafValues>
        -1.8569676578044891e-01 3.6471700668334961e-01</leafValues></_>
    <_>
      <internalNodes>
        0 -1 138696 -1.9961853977292776e-03</internalNodes>
      <leafValues>
        3.4387400746345520e-01 -2.0095780491828918e-01</leafValues></_>
    <_>
      <internalNodes>
        0 -1 138832 1.7079765675589442e-03</internalNodes>
      <leafValues>
        -2.7863475680351257e-01 2.9155814647674561e-01</leafValues></_></weakClassifiers></stage15>
</opencv_storage>
