<?xml version="1.0"?>
<opencv_storage>
<stage17>
  <maxWeakCount>17</maxWeakCount>
  <stageThreshold>-9.7268337011337280e-01</stageThreshold>
  <weakClassifiers>
    <_>
      <internalNodes>
        0 -1 98590 -5.0136283971369267e-04</internalNodes>
      <leafValues>
        5.2264809608459473e-02 -4.8948106169700623e-01</leafValues></_>
    <_>
      <internalNodes>
        0 -1 25763 1.0616526007652283e-02</internalNodes>
      <leafValues>
        -1.4835985004901886e-01 5.7103556394577026e-01</leafValues></_>
    <_>
      <internalNodes>
        0 -1 98526 5.2979700267314911e-03</internalNodes>
      <leafValues>
        9.4593800604343414e-02 -6.9502693414688110e-01</leafValues></_>
    <_>
      <internalNodes>
        0 -1 47745 -5.2523404359817505e-02</internalNodes>
      <leafValues>
        -5.3217571973800659e-01 1.3595223426818848e-01</leafValues></_>
    <_>
      <internalNodes>
        0 -1 153671 2.0106388255953789e-03</internalNodes>
      <leafValues>
        1.4142008125782013e-01 -3.7003314495086670e-01</leafValues></_>
    <_>
      <internalNodes>
        0 -1 120171 5.2062543109059334e-03</internalNodes>
      <leafValues>
        7.9266212880611420e-02 -8.0866879224777222e-01</leafValues></_>
    <_>
      <internalNodes>
        0 -1 156057 -1.8214047886431217e-03</internalNodes>
      <leafValues>
        -3.3049815893173218e-01 1.7222778499126434e-01</leafValues></_>
    <_>
      <internalNodes>
        0 -1 76899 -1.1715040542185307e-02</internalNodes>
      <leafValues>
        3.3586138486862183e-01 -1.5819886326789856e-01</leafValues></_>
    <_>
      <internalNodes>
        0 -1 56825 -1.2969938688911498e-04</internalNodes>
      <leafValues>
        2.3864655196666718e-01 -2.3931683599948883e-01</leafValues></_>
    <_>
      <internalNodes>
        0 -1 121428 2.0055873319506645e-03</internalNodes>
      <leafValues>
        -1.0247139632701874e-01 5.7344204187393188e-01</leafValues></_>
    <_>
      <internalNodes>
        0 -1 127999 -1.5083915786817670e-03</internalNodes>
      <leafValues>
        3.6068332195281982e-01 -1.6190017759799957e-01</leafValues></_>
    <_>
      <internalNodes>
        0 -1 11120 -5.9983567334711552e-03</internalNodes>
      <leafValues>
        2.8623199462890625e-01 -1.9398947060108185e-01</leafValues></_>
    <_>
      <internalNodes>
        0 -1 151848 -4.5859152451157570e-03</internalNodes>
      <leafValues>
        6.2452447414398193e-01 -9.1642893850803375e-02</leafValues></_>
    <_>
      <internalNodes>
        0 -1 136676 -2.6835460215806961e-02</internalNodes>
      <leafValues>
        3.5415735840797424e-01 -1.6924332082271576e-01</leafValues></_>
    <_>
      <internalNodes>
        0 -1 130693 1.7250945791602135e-02</internalNodes>
      <leafValues>
        -1.8760421872138977e-01 3.7241280078887939e-01</leafValues></_>
    <_>
      <internalNodes>
        0 -1 108344 -1.8057152628898621e-01</internalNodes>
      <leafValues>
        8.4333866834640503e-01 -6.5787695348262787e-02</leafValues></_>
    <_>
      <internalNodes>
        0 -1 85310 -4.3894056230783463e-02</internalNodes>
      <leafValues>
        1.1646892875432968e-01 -5.0904071331024170e-01</leafValues></_></weakClassifiers></stage17>
</opencv_storage>
